6 20
CIRCULO 0.0293179 1 0.016513 0.0292261 0.0138985 0.014046 0.00856376 0.0045095 0.00476905 0.00105399 0.0038407 0.00104167 0.00227181 0.00167517 0.000693365 0.000942504 0.000631373 0.00120617 0.00139952 0.00100462 
CIRCULO 0.0191275 1 0.0161903 0.0261156 0.00771068 0.0136718 0.00311528 0.00261712 0.00205818 0.00285469 0.000922531 0.00436631 0.00223228 0.0005384 0.00171494 0.000919841 0.00178678 0.000798398 0.000976094 0.000200861 
CIRCULO 0.0397683 1 0.0347355 0.0436996 0.022616 0.00745296 0.000366284 0.00690401 0.00192269 0.00176751 0.0026417 0.00249789 0.00191468 0.00250271 0.00249656 0.000427879 0.00131584 0.000675672 0.000736818 0.000519676 
CUADRADO 0.00861168 1 0.00964241 0.0989838 0.00795487 0.0339518 0.00680931 0.0206993 0.00440945 0.0123308 0.00195881 0.00724583 0.0019675 0.00461975 0.0019569 0.00528484 0.000505019 0.00484836 0.00125495 0.00359104 
CUADRADO 0.0825354 1 15.4042 0.929309 0.354016 0.344764 1.35893 0.227181 0.114538 0.30608 0.403976 0.169445 0.145635 0.10406 0.186725 0.0951641 0.0472881 0.144026 0.073195 0.0405449 
CUADRADO 0.034002 1 3.25365 0.833935 0.2102 0.0826523 0.0610939 0.375539 0.0942651 0.108486 0.116934 0.170192 0.0420406 0.0337741 0.0411506 0.0386406 0.0388964 0.022651 0.0121925 0.0071034 
